{"learner":{"attributes":{"scikit_learn":"{\"_estimator_type\": \"regressor\"}"},"feature_names":["Arrivals (Tonnes)","Modal Price (Rs./Quintal)","weather_year","weather_mo","weather_da","weather_temp","weather_dewp","weather_visib","weather_wdsp","weather_mxpsd","weather_min","weather_fog","weather_rain_drizzle","weather_thunder","year","month","day_of_year","week_of_year","day_of_year_sin","day_of_year_cos","temp_range","is_rainy","Arrival_Shock","Price_Volatility_14D","weather_max_lag3","Price_Lag_1","Price_Lag_3"],"feature_types":["float","int","int","int","int","float","float","float","float","float","float","int","int","int","int","int","int","int","float","float","float","int","float","float","float","float","float"],"gradient_booster":{"model":{"cats":{"enc":[],"feature_segments":[],"sorted_idx":[]},"gbtree_model_param":{"num_parallel_tree":"1","num_trees":"50"},"iteration_indptr":[0,1,2,3,4,5,6,7,8,9,10,11,12,13,14,15,16,17,18,19,20,21,22,23,24,25,26,27,28,29,30,31,32,33,34,35,36,37,38,39,40,41,42,43,44,45,46,47,48,49,50],"tree_info":[0,0,0,0,0,0,0,0,0,0,0,0,0,0,0,0,0,0,0,0,0,0,0,0,0,0,0,0,0,0,0,0,0,0,0,0,0,0,0,0,0,0,0,0,0,0,0,0,0,0],"trees":[{"base_weights":[7.583479E-1,3.6925896E1,-1.2736781E2,1.8039204E1,1.4275096E2,-2.0603632E2,-2.1880852E1,2.9238994E0,-9.333617E-1,1.0475701E1,2.2568483E0,-9.188584E0,-2.4509817E1,-5.941762E0,5.743068E0],"categories":[],"categories_nodes":[],"categories_segments":[],"categories_sizes":[],"default_left":[0,0,0,0,0,0,0,0,0,0,0,0,0,0,0],"id":0,"left_children":[1,3,5,7,9,11,13,-1,-1,-1,-1,-1,-1,-1,-1],"loss_changes":[1.9705206E8,6.627783E7,7.767778E7,4.1772572E7,3.271896E7,3.383376E7,5.304468E7,0E0,0E0,0E0,0E0,0E0,0E0,0E0,0E0],"parents":[2147483647,0,0,1,1,2,2,3,3,4,4,5,5,6,6],"right_children":[2,4,6,8,10,12,14,-1,-1,-1,-1,-1,-1,-1,-1],"split_conditions":[9.5E2,2.1362933E2,3.7E0,4.1E2,7.5E2,2.545E3,1.4E3,2.9238994E0,-9.333617E-1,1.0475701E1,2.2568483E0,-9.188584E0,-2.4509817E1,-5.941762E0,5.743068E0],"split_indices":[1,23,0,1,1,1,25,0,0,0,0,0,0,0,0],"split_type":[0,0,0,0,0,0,0,0,0,0,0,0,0,0,0],"sum_hessian":[4.2521E4,3.3161E4,9.36E3,2.814E4,5.021E3,5.361E3,3.999E3,1.3389E4,1.4751E4,2.981E3,2.04E3,4.973E3,3.88E2,2.34E3,1.659E3],"tree_param":{"num_deleted":"0","num_feature":"27","num_nodes":"15","size_leaf_vector":"1"}},{"base_weights":[-2.1975172E-1,3.9873158E1,-1.0561858E2,1.7583422E1,1.5565045E2,-1.770639E2,-1.5537157E1,2.8408246E0,-1.5217863E0,1.2257384E1,4.8061295E0,-7.847738E0,-2.4371494E1,-3.1866243E0,8.712191E0],"categories":[],"categories_nodes":[],"categories_segments":[],"categories_sizes":[],"default_left":[0,0,0,0,0,0,0,0,0,0,0,0,0,0,0],"id":1,"left_children":[1,3,5,7,9,11,13,-1,-1,-1,-1,-1,-1,-1,-1],"loss_changes":[1.8051963E8,7.98605E7,7.5760616E7,4.88937E7,2.6593016E7,4.0896944E7,4.764637E7,0E0,0E0,0E0,0E0,0E0,0E0,0E0,0E0],"parents":[2147483647,0,0,1,1,2,2,3,3,4,4,5,5,6,6],"right_children":[2,4,6,8,10,12,14,-1,-1,-1,-1,-1,-1,-1,-1],"split_conditions":[9E2,8E2,3.53E0,4.5E2,6.3E2,2.545E3,1.7E3,2.8408246E0,-1.5217863E0,1.2257384E1,4.8061295E0,-7.847738E0,-2.4371494E1,-3.1866243E0,8.712191E0],"split_indices":[1,26,0,1,1,1,26,0,0,0,0,0,0,0,0],"split_type":[0,0,0,0,0,0,0,0,0,0,0,0,0,0,0],"sum_hessian":[4.2717E4,3.0946E4,1.1771E4,2.5951E4,4.995E3,6.564E3,5.207E3,1.4282E4,1.1669E4,1.994E3,3.001E3,6.166E3,3.98E2,4.153E3,1.054E3],"tree_param":{"num_deleted":"0","num_feature":"27","num_nodes":"15","size_leaf_vector":"1"}},{"base_weights":[1.2531524E0,3.3991356E1,-1.12951454E2,1.4506079E1,1.3126706E2,-1.8713025E2,-1.3329318E1,2.5478742E0,-9.5516634E-1,1.0564751E1,3.0604134E0,-8.510074E0,-2.5542143E1,-3.6103902E0,9.351911E0],"categories":[],"categories_nodes":[],"categories_segments":[],"categories_sizes":[],"default_left":[0,0,0,0,0,0,0,0,0,0,0,0,0,0,0],"id":2,"left_children":[1,3,5,7,9,11,13,-1,-1,-1,-1,-1,-1,-1,-1],"loss_changes":[1.5935752E8,6.2786576E7,7.017152E7,3.381278E7,3.0980688E7,2.9741024E7,4.7839908E7,0E0,0E0,0E0,0E0,0E0,0E0,0E0,0E0],"parents":[2147483647,0,0,1,1,2,2,3,3,4,4,5,5,6,6],"right_children":[2,4,6,8,10,12,14,-1,-1,-1,-1,-1,-1,-1,-1],"split_conditions":[9.5E2,2.0540633E2,3.53E0,4.1E2,6.3E2,3E3,1.8E3,2.5478742E0,-9.5516634E-1,1.0564751E1,3.0604134E0,-8.510074E0,-2.5542143E1,-3.6103902E0,9.351911E0],"split_indices":[1,23,0,1,1,1,26,0,0,0,0,0,0,0,0],"split_type":[0,0,0,0,0,0,0,0,0,0,0,0,0,0,0],"sum_hessian":[4.262E4,3.3125E4,9.495E3,2.7598E4,5.527E3,5.442E3,4.053E3,1.3239E4,1.4359E4,2.579E3,2.948E3,5.173E3,2.69E2,3.133E3,9.2E2],"tree_param":{"num_deleted":"0","num_feature":"27","num_nodes":"15","size_leaf_vector":"1"}},{"base_weights":[-1.9922082E-1,3.587413E1,-9.4868706E1,1.4864038E1,1.4568579E2,-8.287E1,-5.2558044E2,2.615619E0,-1.547804E0,1.1534374E1,4.5300627E0,-6.7269616E0,1.6563416E0,-1.6654689E2,-2.2586348E1],"categories":[],"categories_nodes":[],"categories_segments":[],"categories_sizes":[],"default_left":[0,0,0,0,0,0,0,0,0,0,0,0,0,0,0],"id":3,"left_children":[1,3,5,7,9,11,13,-1,-1,-1,-1,-1,-1,-1,-1],"loss_changes":[1.4531016E8,7.108122E7,6.0628576E7,4.4379616E7,2.3147016E7,6.846785E7,6.4380304E7,0E0,0E0,0E0,0E0,0E0,0E0,0E0,0E0],"parents":[2147483647,0,0,1,1,2,2,3,3,4,4,5,5,6,6],"right_children":[2,4,6,8,10,12,14,-1,-1,-1,-1,-1,-1,-1,-1],"split_conditions":[9E2,8E2,3E3,4.5E2,6.3E2,1.4E3,2.02E3,2.615619E0,-1.547804E0,1.1534374E1,4.5300627E0,-6.7269616E0,1.6563416E0,-1.6654689E2,-2.2586348E1],"split_indices":[1,26,1,1,1,26,2,0,0,0,0,0,0,0,0],"split_type":[0,0,0,0,0,0,0,0,0,0,0,0,0,0,0],"sum_hessian":[4.2548E4,3.0809E4,1.1739E4,2.5862E4,4.947E3,1.1422E4,3.17E2,1.4231E4,1.1631E4,1.944E3,3.003E3,7.902E3,3.52E3,7E0,3.1E2],"tree_param":{"num_deleted":"0","num_feature":"27","num_nodes":"15","size_leaf_vector":"1"}},{"base_weights":[1.541338E-1,3.0322527E1,-1.0566943E2,1.3865048E1,1.3506711E2,-1.8914278E2,-1.9413656E1,2.3336098E0,-7.4842656E-1,1.0633525E1,3.4513276E0,-8.363997E0,-2.2713257E1,-5.605715E0,4.707363E0],"categories":[],"categories_nodes":[],"categories_segments":[],"categories_sizes":[],"default_left":[0,0,0,0,0,0,0,0,0,0,0,0,0,0,0],"id":4,"left_children":[1,3,5,7,9,11,13,-1,-1,-1,-1,-1,-1,-1,-1],"loss_changes":[1.3626982E8,5.725519E7,6.817368E7,2.7155068E7,2.3098944E7,2.7815904E7,4.9046116E7,0E0,0E0,0E0,0E0,0E0,0E0,0E0,0E0],"parents":[2147483647,0,0,1,1,2,2,3,3,4,4,5,5,6,6],"right_children":[2,4,6,8,10,12,14,-1,-1,-1,-1,-1,-1,-1,-1],"split_conditions":[9.5E2,2.2088733E2,2.1E0,4.1E2,6.3E2,2.545E3,1.3E3,2.3336098E0,-7.4842656E-1,1.0633525E1,3.4513276E0,-8.363997E0,-2.2713257E1,-5.605715E0,4.707363E0],"split_indices":[1,23,0,1,1,1,25,0,0,0,0,0,0,0,0],"split_type":[0,0,0,0,0,0,0,0,0,0,0,0,0,0,0],"sum_hessian":[4.2682E4,3.3214E4,9.468E3,2.8705E4,4.509E3,4.811E3,4.657E3,1.3427E4,1.5278E4,2.072E3,2.437E3,4.446E3,3.65E2,2.564E3,2.093E3],"tree_param":{"num_deleted":"0","num_feature":"27","num_nodes":"15","size_leaf_vector":"1"}},{"base_weights":[-7.057748E-2,2.388644E1,-1.2275787E2,8.269635E0,1.0238851E2,-2.4386331E2,-2.740128E1,1.5331203E0,-3.5187256E0,1.0574176E1,2.4681044E0,-1.1744004E1,-1.4841727E2,-2.848913E0,2.2016953E1],"categories":[],"categories_nodes":[],"categories_segments":[],"categories_sizes":[],"default_left":[0,0,0,0,0,0,0,0,0,0,0,0,0,0,0],"id":5,"left_children":[1,3,5,7,9,11,13,-1,-1,-1,-1,-1,-1,-1,-1],"loss_changes":[1.2534604E8,4.3739876E7,8.044964E7,5.241131E7,3.423627E7,7.44155E7,5.39652E7,0E0,0E0,0E0,0E0,0E0,0E0,0E0,0E0],"parents":[2147483647,0,0,1,1,2,2,3,3,4,4,5,5,6,6],"right_children":[2,4,6,8,10,12,14,-1,-1,-1,-1,-1,-1,-1,-1],"split_conditions":[1.1E3,9E2,1.24E3,6.3E2,7.5E2,2.9E3,5.77E1,1.5331203E0,-3.5187256E0,1.0574176E1,2.4681044E0,-1.1744004E1,-1.4841727E2,-2.848913E0,2.2016953E1],"split_indices":[1,26,26,1,1,1,0,0,0,0,0,0,0,0,0],"split_type":[0,0,0,0,0,0,0,0,0,0,0,0,0,0,0],"sum_hessian":[4.2644E4,3.5678E4,6.966E3,2.9759E4,5.919E3,3.068E3,3.898E3,2.3164E4,6.595E3,1.935E3,3.984E3,3.059E3,9E0,3.667E3,2.31E2],"tree_param":{"num_deleted":"0","num_feature":"27","num_nodes":"15","size_leaf_vector":"1"}},{"base_weights":[3.7293637E-1,2.3091455E1,-1.1666809E2,8.582133E0,1.022166E2,-2.5797238E2,-3.8118248E1,3.0969996E0,-4.894124E-1,8.63333E0,1.7486743E0,-1.2254591E1,-1.5569553E2,-2.5915036E0,3.7522617E1],"categories":[],"categories_nodes":[],"categories_segments":[],"categories_sizes":[],"default_left":[0,0,0,0,0,0,0,0,0,0,0,0,0,0,0],"id":6,"left_children":[1,3,5,7,9,11,13,-1,-1,-1,-1,-1,-1,-1,-1],"loss_changes":[1.1304737E8,4.087437E7,7.669833E7,2.9492988E7,2.6129528E7,9.006162E7,4.8079904E7,0E0,0E0,0E0,0E0,0E0,0E0,0E0,0E0],"parents":[2147483647,0,0,1,1,2,2,3,3,4,4,5,5,6,6],"right_children":[2,4,6,8,10,12,14,-1,-1,-1,-1,-1,-1,-1,-1],"split_conditions":[1.1E3,2.1949992E2,1.15E3,3.2E2,7.5E2,2.9E3,1.25E2,3.0969996E0,-4.894124E-1,8.63333E0,1.7486743E0,-1.2254591E1,-1.5569553E2,-2.5915036E0,3.7522617E1],"split_indices":[1,23,26,1,1,1,0,0,0,0,0,0,0,0,0],"split_type":[0,0,0,0,0,0,0,0,0,0,0,0,0,0,0],"sum_hessian":[4.2513E4,3.5603E4,6.91E3,3.0087E4,5.516E3,2.468E3,4.442E3,7.705E3,2.2382E4,2.693E3,2.823E3,2.458E3,1E1,4.367E3,7.5E1],"tree_param":{"num_deleted":"0","num_feature":"27","num_nodes":"15","size_leaf_vector":"1"}},{"base_weights":[9.186072E-1,3.0360483E1,-7.638174E1,9.842767E0,1.2974968E2,-1.4040694E2,-8.321202E0,1.9640067E0,-1.9077568E0,9.842217E0,4.092562E0,-6.2426515E0,-1.9683386E1,-3.066695E0,4.8687224E0],"categories":[],"categories_nodes":[],"categories_segments":[],"categories_sizes":[],"default_left":[0,0,0,0,0,0,0,0,0,0,0,0,0,0,0],"id":7,"left_children":[1,3,5,7,9,11,13,-1,-1,-1,-1,-1,-1,-1,-1],"loss_changes":[9.699295E7,6.2935772E7,5.122229E7,3.6148536E7,1.6955592E7,2.3810544E7,3.1938676E7,0E0,0E0,0E0,0E0,0E0,0E0,0E0,0E0],"parents":[2147483647,0,0,1,1,2,2,3,3,4,4,5,5,6,6],"right_children":[2,4,6,8,10,12,14,-1,-1,-1,-1,-1,-1,-1,-1],"split_conditions":[8.6E2,7.5E2,2.6E0,4.6E2,6.3E2,2.545E3,1.4E3,1.9640067E0,-1.9077568E0,9.842217E0,4.092562E0,-6.2426515E0,-1.9683386E1,-3.066695E0,4.8687224E0],"split_indices":[1,25,0,1,1,1,26,0,0,0,0,0,0,0,0],"split_type":[0,0,0,0,0,0,0,0,0,0,0,0,0,0,0],"sum_hessian":[4.2616E4,3.0862E4,1.1754E4,2.5582E4,5.28E3,6.056E3,5.698E3,1.5857E4,9.725E3,2.198E3,3.082E3,5.707E3,3.49E2,3.795E3,1.903E3],"tree_param":{"num_deleted":"0","num_feature":"27","num_nodes":"15","size_leaf_vector":"1"}},{"base_weights":[9.140508E-3,2.7864817E1,-7.338967E1,7.8973355E0,1.23289665E2,-1.2197239E2,1.4039626E1,2.069804E0,-1.5561142E0,9.540047E0,3.7586503E0,-5.4280505E0,-1.7955725E1,-1.63998E0,1.0369954E1],"categories":[],"categories_nodes":[],"categories_segments":[],"categories_sizes":[],"default_left":[0,0,0,0,0,0,0,0,0,0,0,0,0,0,0],"id":8,"left_children":[1,3,5,7,9,11,13,-1,-1,-1,-1,-1,-1,-1,-1],"loss_changes":[8.713973E7,5.886617E7,4.9804264E7,3.33979E7,1.7351688E7,2.3931728E7,3.7945764E7,0E0,0E0,0E0,0E0,0E0,0E0,0E0,0E0],"parents":[2147483647,0,0,1,1,2,2,3,3,4,4,5,5,6,6],"right_children":[2,4,6,8,10,12,14,-1,-1,-1,-1,-1,-1,-1,-1],"split_conditions":[9E2,7.5E2,5.7E0,4.1E2,6.3E2,2.545E3,1.8E3,2.069804E0,-1.5561142E0,9.540047E0,3.7586503E0,-5.4280505E0,-1.7955725E1,-1.63998E0,1.0369954E1],"split_indices":[1,25,0,1,1,1,26,0,0,0,0,0,0,0,0],"split_type":[0,0,0,0,0,0,0,0,0,0,0,0,0,0,0],"sum_hessian":[4.2618E4,3.0894E4,1.1724E4,2.5549E4,5.345E3,7.536E3,4.188E3,1.3747E4,1.1802E4,2.223E3,3.122E3,7.134E3,4.02E2,3.372E3,8.16E2],"tree_param":{"num_deleted":"0","num_feature":"27","num_nodes":"15","size_leaf_vector":"1"}},{"base_weights":[-3.2354507E-1,2.0073416E1,-1.0513819E2,1.1370055E1,1.5119891E2,-2.3345898E2,-3.370381E1,-1.1021188E0,2.0058746E0,5.4698715E0,2.0229414E1,-1.1074012E1,-1.4520934E2,-2.9394891E0,1.953887E1],"categories":[],"categories_nodes":[],"categories_segments":[],"categories_sizes":[],"default_left":[0,0,0,0,0,0,0,0,0,0,0,0,0,0,0],"id":9,"left_children":[1,3,5,7,9,11,13,-1,-1,-1,-1,-1,-1,-1,-1],"loss_changes":[9.109376E7,4.070376E7,6.361692E7,3.2129376E7,2.3470096E7,7.876085E7,4.7515396E7,0E0,0E0,0E0,0E0,0E0,0E0,0E0,0E0],"parents":[2147483647,0,0,1,1,2,2,3,3,4,4,5,5,6,6],"right_children":[2,4,6,8,10,12,14,-1,-1,-1,-1,-1,-1,-1,-1],"split_conditions":[1.1E3,1.051E3,1.15E3,5E0,1.3E3,2.9E3,5.77E1,-1.1021188E0,2.0058746E0,5.4698715E0,2.0229414E1,-1.1074012E1,-1.4520934E2,-2.9394891E0,1.953887E1],"split_indices":[1,26,26,0,25,1,0,0,0,0,0,0,0,0,0],"split_type":[0,0,0,0,0,0,0,0,0,0,0,0,0,0,0],"sum_hessian":[4.2607E4,3.5667E4,6.94E3,3.3448E4,2.219E3,2.481E3,4.459E3,1.5469E4,1.7979E4,1.906E3,3.13E2,2.471E3,1E1,4.211E3,2.48E2],"tree_param":{"num_deleted":"0","num_feature":"27","num_nodes":"15","size_leaf_vector":"1"}},{"base_weights":[4.3119818E-1,1.9588984E1,-9.444884E1,-2.1865685E0,6.9740234E1,-2.1116208E2,-2.2060452E1,1.1677699E0,-3.9528496E0,8.311226E0,1.5534645E0,-9.966432E0,-1.2484187E2,-1.7583555E0,3.4397045E1],"categories":[],"categories_nodes":[],"categories_segments":[],"categories_sizes":[],"default_left":[0,0,0,0,0,0,0,0,0,0,0,0,0,0,0],"id":10,"left_children":[1,3,5,7,9,11,13,-1,-1,-1,-1,-1,-1,-1,-1],"loss_changes":[7.7308264E7,3.8644188E7,6.0361184E7,4.8447316E7,3.9966516E7,7.347692E7,4.107184E7,0E0,0E0,0E0,0E0,0E0,0E0,0E0,0E0],"parents":[2147483647,0,0,1,1,2,2,3,3,4,4,5,5,6,6],"right_children":[2,4,6,8,10,12,14,-1,-1,-1,-1,-1,-1,-1,-1],"split_conditions":[1.05E3,6.6E2,1.2E3,5.25E2,6.3E2,2.545E3,1.25E2,1.1677699E0,-3.9528496E0,8.311226E0,1.5534645E0,-9.966432E0,-1.2484187E2,-1.7583555E0,3.4397045E1],"split_indices":[1,26,26,1,1,1,0,0,0,0,0,0,0,0,0],"split_type":[0,0,0,0,0,0,0,0,0,0,0,0,0,0,0],"sum_hessian":[4.2529E4,3.5385E4,7.144E3,2.4673E4,1.0712E4,2.734E3,4.41E3,1.852E4,6.153E3,3.064E3,7.648E3,2.721E3,1.3E1,4.331E3,7.9E1],"tree_param":{"num_deleted":"0","num_feature":"27","num_nodes":"15","size_leaf_vector":"1"}},{"base_weights":[6.412616E-1,2.582368E1,-6.469558E1,8.14257E0,1.1898745E2,-1.31478E2,-7.6547756E0,2.836133E0,-6.801228E-1,8.106587E0,2.5164175E0,-5.779002E0,-1.8136887E1,-2.8598228E0,4.6674304E0],"categories":[],"categories_nodes":[],"categories_segments":[],"categories_sizes":[],"default_left":[0,0,0,0,0,0,0,0,0,0,0,0,0,0,0],"id":11,"left_children":[1,3,5,7,9,11,13,-1,-1,-1,-1,-1,-1,-1,-1],"loss_changes":[6.975256E7,5.040455E7,4.4926148E7,2.7170744E7,1.4450568E7,1.9932816E7,3.1840006E7,0E0,0E0,0E0,0E0,0E0,0E0,0E0,0E0],"parents":[2147483647,0,0,1,1,2,2,3,3,4,4,5,5,6,6],"right_children":[2,4,6,8,10,12,14,-1,-1,-1,-1,-1,-1,-1,-1],"split_conditions":[8.6E2,8E2,1.9E0,3.2E2,7.5E2,2.545E3,1.4E3,2.836133E0,-6.801228E-1,8.106587E0,2.5164175E0,-5.779002E0,-1.8136887E1,-2.8598228E0,4.6674304E0],"split_indices":[1,25,0,1,1,1,25,0,0,0,0,0,0,0,0],"split_type":[0,0,0,0,0,0,0,0,0,0,0,0,0,0,0],"sum_hessian":[4.2392E4,3.0599E4,1.1793E4,2.5719E4,4.88E3,5.432E3,6.361E3,7.952E3,1.7767E4,2.996E3,1.884E3,5.084E3,3.48E2,4.268E3,2.093E3],"tree_param":{"num_deleted":"0","num_feature":"27","num_nodes":"15","size_leaf_vector":"1"}},{"base_weights":[-4.677777E-1,1.6867367E1,-9.011166E1,8.781549E0,1.4147852E2,-2.4740598E2,-4.5737354E1,1.1967416E0,-2.6227207E0,5.236799E0,2.0599058E1,-1.1469479E1,-1.349038E2,-1.2406138E0,-1.7678133E1],"categories":[],"categories_nodes":[],"categories_segments":[],"categories_sizes":[],"default_left":[0,0,0,0,0,0,0,0,0,0,0,0,0,0,0],"id":12,"left_children":[1,3,5,7,9,11,13,-1,-1,-1,-1,-1,-1,-1,-1],"loss_changes":[6.6257424E7,3.599768E7,4.8212296E7,3.113502E7,2.1593952E7,6.6492536E7,3.4709664E7,0E0,0E0,0E0,0E0,0E0,0E0,0E0,0E0],"parents":[2147483647,0,0,1,1,2,2,3,3,4,4,5,5,6,6],"right_children":[2,4,6,8,10,12,14,-1,-1,-1,-1,-1,-1,-1,-1],"split_conditions":[1.1E3,1.1E3,9.5E2,7.5E2,1.4E3,2.545E3,2.9E3,1.1967416E0,-2.6227207E0,5.236799E0,2.0599058E1,-1.1469479E1,-1.349038E2,-1.2406138E0,-1.7678133E1],"split_indices":[1,26,26,1,25,1,1,0,0,0,0,0,0,0,0],"split_type":[0,0,0,0,0,0,0,0,0,0,0,0,0,0,0],"sum_hessian":[4.2635E4,3.5727E4,6.908E3,3.3551E4,2.176E3,1.519E3,5.389E3,2.6896E4,6.655E3,1.917E3,2.59E2,1.509E3,1E1,5.047E3,3.42E2],"tree_param":{"num_deleted":"0","num_feature":"27","num_nodes":"15","size_leaf_vector":"1"}},{"base_weights":[4.541663E-1,2.0494066E1,-7.272105E1,6.1846805E0,1.1161973E2,-2.0452887E2,-3.683347E1,1.3632687E0,-1.9532614E0,4.717705E0,1.7379732E1,-9.130257E0,-8.0187645E1,-2.6848943E0,1.2409358E1],"categories":[],"categories_nodes":[],"categories_segments":[],"categories_sizes":[],"default_left":[0,0,0,0,0,0,0,0,0,0,0,0,0,0,0],"id":13,"left_children":[1,3,5,7,9,11,13,-1,-1,-1,-1,-1,-1,-1,-1],"loss_changes":[6.2255588E7,4.3456124E7,4.316558E7,2.7478136E7,1.8395056E7,5.961777E7,3.4501456E7,0E0,0E0,0E0,0E0,0E0,0E0,0E0,0E0],"parents":[2147483647,0,0,1,1,2,2,3,3,4,4,5,5,6,6],"right_children":[2,4,6,8,10,12,14,-1,-1,-1,-1,-1,-1,-1,-1],"split_conditions":[1E3,9E2,9E2,5.25E2,1.24E3,2E3,5.1E1,1.3632687E0,-1.9532614E0,4.717705E0,1.7379732E1,-9.130257E0,-8.0187645E1,-2.6848943E0,1.2409358E1],"split_indices":[1,26,25,1,25,1,0,0,0,0,0,0,0,0,0],"split_type":[0,0,0,0,0,0,0,0,0,0,0,0,0,0,0],"sum_hessian":[4.2452E4,3.3326E4,9.126E3,2.8804E4,4.522E3,1.952E3,7.174E3,1.965E4,9.154E3,4.215E3,3.07E2,1.923E3,2.9E1,6.774E3,4E2],"tree_param":{"num_deleted":"0","num_feature":"27","num_nodes":"15","size_leaf_vector":"1"}},{"base_weights":[-1.3020582E-1,-3.906348E1,3.7097668E1,-1.2325614E1,-1.3914973E2,3.0986698E1,1.8497557E2,-1.9271357E0,2.2971933E0,-1.0564615E1,-3.1550434E0,1.5788862E0,-1.01808136E2,2.4727541E1,1.71921E0],"categories":[],"categories_nodes":[],"categories_segments":[],"categories_sizes":[],"default_left":[0,0,0,0,0,0,0,0,0,0,0,0,0,0,0],"id":14,"left_children":[1,3,5,7,9,11,13,-1,-1,-1,-1,-1,-1,-1,-1],"loss_changes":[6.1815588E7,5.5786788E7,1.9696242E7,2.5136308E7,2.4099216E7,2.564499E7,4.0308744E7,0E0,0E0,0E0,0E0,0E0,0E0,0E0,0E0],"parents":[2147483647,0,0,1,1,2,2,3,3,4,4,5,5,6,6],"right_children":[2,4,6,8,10,12,14,-1,-1,-1,-1,-1,-1,-1,-1],"split_conditions":[5E0,1.1E3,1.8E3,6.6E2,2.02E3,2.9E3,1.55E3,-1.9271357E0,2.2971933E0,-1.0564615E1,-3.1550434E0,1.5788862E0,-1.01808136E2,2.4727541E1,1.71921E0],"split_indices":[0,1,25,26,2,1,1,0,0,0,0,0,0,0,0],"split_type":[0,0,0,0,0,0,0,0,0,0,0,0,0,0,0],"sum_hessian":[4.2647E4,2.0846E4,2.1801E4,1.6452E4,4.394E3,2.0937E4,8.64E2,1.1347E4,5.105E3,2.254E3,2.14E3,2.0932E4,5E0,2.82E2,5.82E2],"tree_param":{"num_deleted":"0","num_feature":"27","num_nodes":"15","size_leaf_vector":"1"}},{"base_weights":[-2.4309507E-2,-3.7529995E1,3.565418E1,-1.1878936E1,-1.3313367E2,3.6954018E1,-7.110842E2,-1.4590513E0,3.4099286E0,-1.0174749E1,-3.0513265E0,1.328165E0,7.745225E0,-1.0824224E2,-1.8542637E1],"categories":[],"categories_nodes":[],"categories_segments":[],"categories_sizes":[],"default_left":[0,0,0,0,0,0,0,0,0,0,0,0,0,0,0],"id":15,"left_children":[1,3,5,7,9,11,13,-1,-1,-1,-1,-1,-1,-1,-1],"loss_changes":[5.7026436E7,5.0948136E7,2.1225058E7,2.2699384E7,2.2285848E7,2.6717422E7,1.7992538E7,0E0,0E0,0E0,0E0,0E0,0E0,0E0,0E0],"parents":[2147483647,0,0,1,1,2,2,3,3,4,4,5,5,6,6],"right_children":[2,4,6,8,10,12,14,-1,-1,-1,-1,-1,-1,-1,-1],"split_conditions":[5E0,1.051E3,3E3,8.1E2,2.02E3,3.082207E2,2.02E3,-1.4590513E0,3.4099286E0,-1.0174749E1,-3.0513265E0,1.328165E0,7.745225E0,-1.0824224E2,-1.8542637E1],"split_indices":[0,1,1,26,2,23,2,0,0,0,0,0,0,0,0],"split_type":[0,0,0,0,0,0,0,0,0,0,0,0,0,0,0],"sum_hessian":[4.2614E4,2.0775E4,2.1839E4,1.6381E4,4.394E3,2.1802E4,3.7E1,1.3471E4,2.91E3,2.223E3,2.171E3,2.0038E4,1.764E3,6E0,3.1E1],"tree_param":{"num_deleted":"0","num_feature":"27","num_nodes":"15","size_leaf_vector":"1"}},{"base_weights":[1.1344718E0,-3.5671337E1,3.3978115E1,-1.3372007E1,-1.3572519E2,3.5119213E1,-7.2101825E2,-1.5221628E0,2.9430056E0,-1.1647841E1,-2.8532884E0,1.4607608E0,9.907254E0,-1.0691149E2,-2.014697E1],"categories":[],"categories_nodes":[],"categories_segments":[],"categories_sizes":[],"default_left":[0,0,0,0,0,0,0,0,0,0,0,0,0,0,0],"id":16,"left_children":[1,3,5,7,9,11,13,-1,-1,-1,-1,-1,-1,-1,-1],"loss_changes":[5.146744E7,4.4792656E7,1.9408766E7,2.0247936E7,2.7971416E7,2.1617824E7,1.4465114E7,0E0,0E0,0E0,0E0,0E0,0E0,0E0,0E0],"parents":[2147483647,0,0,1,1,2,2,3,3,4,4,5,5,6,6],"right_children":[2,4,6,8,10,12,14,-1,-1,-1,-1,-1,-1,-1,-1],"split_conditions":[4.4E0,1.2E3,3E3,8.5E2,2.02E3,3.9558E2,1.4E3,-1.5221628E0,2.9430056E0,-1.1647841E1,-2.8532884E0,1.4607608E0,9.907254E0,-1.0691149E2,-2.014697E1],"split_indices":[0,1,1,25,2,23,25,0,0,0,0,0,0,0,0],"split_type":[0,0,0,0,0,0,0,0,0,0,0,0,0,0,0],"sum_hessian":[4.2574E4,2.0076E4,2.2498E4,1.6418E4,3.658E3,2.2465E4,3.3E1,1.328E4,3.138E3,1.635E3,2.023E3,2.1681E4,7.84E2,5E0,2.8E1],"tree_param":{"num_deleted":"0","num_feature":"27","num_nodes":"15","size_leaf_vector":"1"}},{"base_weights":[-1.4573064E-1,2.1366278E1,-5.665773E1,3.6843717E-1,9.045798E1,-2.7433435E2,-4.174047E1,1.1599251E0,-1.3652266E0,1.5015012E0,6.2487035E0,-1.2361365E1,-7.512091E1,-1.6132749E0,-1.690822E1],"categories":[],"categories_nodes":[],"categories_segments":[],"categories_sizes":[],"default_left":[0,0,0,0,0,0,0,0,0,0,0,0,0,0,0],"id":17,"left_children":[1,3,5,7,9,11,13,-1,-1,-1,-1,-1,-1,-1,-1],"loss_changes":[5.15755E7,4.4579424E7,3.797032E7,1.4889691E7,1.4934296E7,2.4595848E7,3.0737734E7,0E0,0E0,0E0,0E0,0E0,0E0,0E0,0E0],"parents":[2147483647,0,0,1,1,2,2,3,3,4,4,5,5,6,6],"right_children":[2,4,6,8,10,12,14,-1,-1,-1,-1,-1,-1,-1,-1],"split_conditions":[8.6E2,1.7591988E2,6E2,4.5E2,6E2,1.8E3,2.9E3,1.1599251E0,-1.3652266E0,1.5015012E0,6.2487035E0,-1.2361365E1,-7.512091E1,-1.6132749E0,-1.690822E1],"split_indices":[1,23,25,1,26,1,1,0,0,0,0,0,0,0,0],"split_type":[0,0,0,0,0,0,0,0,0,0,0,0,0,0,0],"sum_hessian":[4.2423E4,3.0727E4,1.1696E4,2.3566E4,7.161E3,7.49E2,1.0947E4,1.2913E4,1.0653E4,2.604E3,4.557E3,7.34E2,1.5E1,1.0609E4,3.38E2],"tree_param":{"num_deleted":"0","num_feature":"27","num_nodes":"15","size_leaf_vector":"1"}},{"base_weights":[5.351052E-1,-3.6624657E1,2.9753248E1,-1.4982617E1,-1.2887335E2,2.4640768E1,1.754664E2,-1.644172E0,3.0450416E0,-1.1123271E1,-3.15283E0,2.0301993E0,-8.735754E-1,2.6190353E1,2.2749772E0],"categories":[],"categories_nodes":[],"categories_segments":[],"categories_sizes":[],"default_left":[0,0,0,0,0,0,0,0,0,0,0,0,0,0,0],"id":18,"left_children":[1,3,5,7,9,11,13,-1,-1,-1,-1,-1,-1,-1,-1],"loss_changes":[4.6354556E7,3.751735E7,1.780086E7,2.068056E7,2.1983064E7,1.5524249E7,3.664709E7,0E0,0E0,0E0,0E0,0E0,0E0,0E0,0E0],"parents":[2147483647,0,0,1,1,2,2,3,3,4,4,5,5,6,6],"right_children":[2,4,6,8,10,12,14,-1,-1,-1,-1,-1,-1,-1,-1],"split_conditions":[3.53E0,1.2E3,1.9E3,8.5E2,1.24E3,7.5E2,1.55E3,-1.644172E0,3.0450416E0,-1.1123271E1,-3.15283E0,2.0301993E0,-8.735754E-1,2.6190353E1,2.2749772E0],"split_indices":[0,1,26,26,26,1,1,0,0,0,0,0,0,0,0],"split_type":[0,0,0,0,0,0,0,0,0,0,0,0,0,0,0],"sum_hessian":[4.2692E4,1.8792E4,2.39E4,1.5222E4,3.57E3,2.3091E4,8.09E2,1.2317E4,2.905E3,1.473E3,2.097E3,1.6744E4,6.347E3,2.19E2,5.9E2],"tree_param":{"num_deleted":"0","num_feature":"27","num_nodes":"15","size_leaf_vector":"1"}},{"base_weights":[8.096569E-1,4.5279236E0,-3.1391296E2,-2.2923779E1,3.3883427E1,-1.9405673E3,-2.6274582E2,1.939118E-1,-3.0967968E0,1.3850715E0,1.2643684E1,-1.2805493E2,-5.3873257E1,-1.1987393E1,-3.786421E1],"categories":[],"categories_nodes":[],"categories_segments":[],"categories_sizes":[],"default_left":[0,0,0,0,0,0,0,0,0,0,0,0,0,0,0],"id":19,"left_children":[1,3,5,7,9,11,13,-1,-1,-1,-1,-1,-1,-1,-1],"loss_changes":[4.980961E7,3.3900828E7,4.0856056E7,2.2730632E7,2.751434E7,5.274236E6,5.311778E6,0E0,0E0,0E0,0E0,0E0,0E0,0E0,0E0],"parents":[2147483647,0,0,1,1,2,2,3,3,4,4,5,5,6,6],"right_children":[2,4,6,8,10,12,14,-1,-1,-1,-1,-1,-1,-1,-1],"split_conditions":[2.545E3,5.7E0,1.15E3,7.5E2,2E3,1E1,-4.862727E-1,1.939118E-1,-3.0967968E0,1.3850715E0,1.2643684E1,-1.2805493E2,-5.3873257E1,-1.1987393E1,-3.786421E1],"split_indices":[1,0,26,1,26,3,18,0,0,0,0,0,0,0,0],"split_type":[0,0,0,0,0,0,0,0,0,0,0,0,0,0,0],"sum_hessian":[4.2562E4,4.2066E4,4.96E2,2.1738E4,2.0328E4,1.4E1,4.82E2,1.2886E4,8.852E3,1.9771E4,5.57E2,7E0,7E0,4.62E2,2E1],"tree_param":{"num_deleted":"0","num_feature":"27","num_nodes":"15","size_leaf_vector":"1"}},{"base_weights":[1.9621019E-1,2.278719E1,-4.0791447E1,-2.065882E0,9.396592E1,-1.98381E2,-2.3918709E1,9.0568537E-1,-2.724157E0,2.2157853E0,7.322721E0,-9.257E0,-6.2479126E1,-6.625141E-1,-1.10469265E1],"categories":[],"categories_nodes":[],"categories_segments":[],"categories_sizes":[],"default_left":[0,0,0,0,0,0,0,0,0,0,0,0,0,0,0],"id":20,"left_children":[1,3,5,7,9,11,13,-1,-1,-1,-1,-1,-1,-1,-1],"loss_changes":[3.937053E7,4.849053E7,4.016693E7,2.149253E7,1.848094E7,2.010426E7,2.8683688E7,0E0,0E0,0E0,0E0,0E0,0E0,0E0,0E0],"parents":[2147483647,0,0,1,1,2,2,3,3,4,4,5,5,6,6],"right_children":[2,4,6,8,10,12,14,-1,-1,-1,-1,-1,-1,-1,-1],"split_conditions":[7.5E2,6E2,6E2,4.6E2,1.6805284E2,1.8E3,2.5E3,9.0568537E-1,-2.724157E0,2.2157853E0,7.322721E0,-9.257E0,-6.2479126E1,-6.625141E-1,-1.10469265E1],"split_indices":[1,26,25,1,23,1,1,0,0,0,0,0,0,0,0],"split_type":[0,0,0,0,0,0,0,0,0,0,0,0,0,0,0],"sum_hessian":[4.2517E4,2.741E4,1.5107E4,2.0317E4,7.093E3,1.46E3,1.3647E4,1.467E4,5.647E3,3.646E3,3.447E3,1.443E3,1.7E1,1.2947E4,7E2],"tree_param":{"num_deleted":"0","num_feature":"27","num_nodes":"15","size_leaf_vector":"1"}},{"base_weights":[-9.96116E-1,3.939923E0,-1.7907533E2,5.0338674E-1,3.3383014E2,-1.7568092E3,-1.5238858E2,7.070079E-1,-2.9590404E0,1.1186081E1,3.3051792E1,-5.6556458E1,-1.10340416E2,-2.069536E1,-5.0542426E0],"categories":[],"categories_nodes":[],"categories_segments":[],"categories_sizes":[],"default_left":[0,0,0,0,0,0,0,0,0,0,0,0,0,0,0],"id":21,"left_children":[1,3,5,7,9,11,13,-1,-1,-1,-1,-1,-1,-1,-1],"loss_changes":[3.7414716E7,4.695345E7,4.8068332E7,3.3363398E7,1.5236124E7,2.853372E6,1.5119234E7,0E0,0E0,0E0,0E0,0E0,0E0,0E0,0E0],"parents":[2147483647,0,0,1,1,2,2,3,3,4,4,5,5,6,6],"right_children":[2,4,6,8,10,12,14,-1,-1,-1,-1,-1,-1,-1,-1],"split_conditions":[2.2E3,2.15E3,8.1E2,1E3,4.5E1,6.5087946E2,-2.843592E-1,7.070079E-1,-2.9590404E0,1.1186081E1,3.3051792E1,-5.6556458E1,-1.10340416E2,-2.069536E1,-5.0542426E0],"split_indices":[1,26,26,1,0,23,19,0,0,0,0,0,0,0,0],"split_type":[0,0,0,0,0,0,0,0,0,0,0,0,0,0,0],"sum_hessian":[4.2563E4,4.1416E4,1.147E3,4.099E4,4.26E2,1.8E1,1.129E3,3.3367E4,7.623E3,3.2E2,1.06E2,9E0,9E0,1.84E2,9.45E2],"tree_param":{"num_deleted":"0","num_feature":"27","num_nodes":"15","size_leaf_vector":"1"}},{"base_weights":[-8.361686E-2,8.783284E0,-9.754205E1,2.9119425E0,2.4298152E2,-4.848912E2,-6.5754654E1,1.0054601E0,-2.0405319E0,9.1281E0,2.9503159E1,-2.0726683E1,-9.7858574E1,-2.2569475E0,-1.3301879E1],"categories":[],"categories_nodes":[],"categories_segments":[],"categories_sizes":[],"default_left":[0,0,0,0,0,0,0,0,0,0,0,0,0,0,0],"id":22,"left_children":[1,3,5,7,9,11,13,-1,-1,-1,-1,-1,-1,-1,-1],"loss_changes":[3.677581E7,5.3637544E7,4.3666324E7,2.8614698E7,1.9898152E7,2.705334E7,1.3535151E7,0E0,0E0,0E0,0E0,0E0,0E0,0E0,0E0],"parents":[2147483647,0,0,1,1,2,2,3,3,4,4,5,5,6,6],"right_children":[2,4,6,8,10,12,14,-1,-1,-1,-1,-1,-1,-1,-1],"split_conditions":[1.5E3,1.5E3,9.5E2,7.5E2,1.9E3,6.5087946E2,3E3,1.0054601E0,-2.0405319E0,9.1281E0,2.9503159E1,-2.0726683E1,-9.7858574E1,-2.2569475E0,-1.3301879E1],"split_indices":[1,25,26,1,26,23,1,0,0,0,0,0,0,0,0],"split_type":[0,0,0,0,0,0,0,0,0,0,0,0,0,0,0],"sum_hessian":[4.2555E4,3.9007E4,3.548E3,3.8054E4,9.53E2,2.68E2,3.28E3,2.7312E4,1.0742E4,8.13E2,1.4E2,2.57E2,1.1E1,2.975E3,3.05E2],"tree_param":{"num_deleted":"0","num_feature":"27","num_nodes":"15","size_leaf_vector":"1"}},{"base_weights":[8.021027E-2,-2.9370113E1,2.7961264E1,-1.2595931E1,-1.0528871E2,-1.1380984E1,5.0288494E1,-1.8076435E0,1.5265535E0,-9.853223E0,-1.6263922E0,3.7874934E-1,-5.103688E0,1.7105061E0,6.489502E0],"categories":[],"categories_nodes":[],"categories_segments":[],"categories_sizes":[],"default_left":[0,0,0,0,0,0,0,0,0,0,0,0,0,0,0],"id":23,"left_children":[1,3,5,7,9,11,13,-1,-1,-1,-1,-1,-1,-1,-1],"loss_changes":[3.5007852E7,2.640285E7,1.9238484E7,1.7254814E7,2.5048256E7,1.3633787E7,1.7855348E7,0E0,0E0,0E0,0E0,0E0,0E0,0E0,0E0],"parents":[2147483647,0,0,1,1,2,2,3,3,4,4,5,5,6,6],"right_children":[2,4,6,8,10,12,14,-1,-1,-1,-1,-1,-1,-1,-1],"split_conditions":[5E0,1.2E3,2.013E3,6.5E2,2.02E3,6.3E2,4.85E1,-1.8076435E0,1.5265535E0,-9.853223E0,-1.6263922E0,3.7874934E-1,-5.103688E0,1.7105061E0,6.489502E0],"split_indices":[0,1,2,25,2,1,0,0,0,0,0,0,0,0,0],"split_type":[0,0,0,0,0,0,0,0,0,0,0,0,0,0,0],"sum_hessian":[4.2633E4,2.0733E4,2.19E4,1.6982E4,3.751E3,7.929E3,1.3971E4,1.0983E4,5.999E3,1.658E3,2.093E3,6.559E3,1.37E3,1.1622E4,2.349E3],"tree_param":{"num_deleted":"0","num_feature":"27","num_nodes":"15","size_leaf_vector":"1"}},{"base_weights":[1.069991E-1,3.1368687E0,-2.5790958E2,6.6663843E-1,2.5037155E2,-1.687963E3,-2.097038E2,9.6090806E-1,-1.7377678E0,2.472311E1,7.209367E0,-1.1388367E2,-4.8811226E1,-9.3846245E0,-4.1815052E1],"categories":[],"categories_nodes":[],"categories_segments":[],"categories_sizes":[],"default_left":[0,0,0,0,0,0,0,0,0,0,0,0,0,0,0],"id":24,"left_children":[1,3,5,7,9,11,13,-1,-1,-1,-1,-1,-1,-1,-1],"loss_changes":[3.334038E7,2.574379E7,3.3769748E7,2.7427384E7,1.073675E7,4.491992E6,6.463304E6,0E0,0E0,0E0,0E0,0E0,0E0,0E0,0E0],"parents":[2147483647,0,0,1,1,2,2,3,3,4,4,5,5,6,6],"right_children":[2,4,6,8,10,12,14,-1,-1,-1,-1,-1,-1,-1,-1],"split_conditions":[2.545E3,2.5E3,1.15E3,7.5E2,5.29E1,1E1,-4.7115952E-1,9.6090806E-1,-1.7377678E0,2.472311E1,7.209367E0,-1.1388367E2,-4.8811226E1,-9.3846245E0,-4.1815052E1],"split_indices":[1,26,26,1,6,3,18,0,0,0,0,0,0,0,0],"split_type":[0,0,0,0,0,0,0,0,0,0,0,0,0,0,0],"sum_hessian":[4.2646E4,4.2152E4,4.94E2,4.1736E4,4.16E2,1.5E1,4.79E2,2.7391E4,1.4345E4,1.25E2,2.91E2,7E0,8E0,4.64E2,1.5E1],"tree_param":{"num_deleted":"0","num_feature":"27","num_nodes":"15","size_leaf_vector":"1"}},{"base_weights":[-1.6663667E0,8.397739E-1,-3.309696E2,-2.8724222E1,2.317003E1,-2.1527102E3,-2.7770007E2,-6.4320415E-1,-4.3951883E0,-5.728871E-1,2.115922E0,-2.9110762E1,-1.13812256E2,5.953161E0,-1.5254788E1],"categories":[],"categories_nodes":[],"categories_segments":[],"categories_sizes":[],"default_left":[0,0,0,0,0,0,0,0,0,0,0,0,0,0,0],"id":25,"left_children":[1,3,5,7,9,11,13,-1,-1,-1,-1,-1,-1,-1,-1],"loss_changes":[3.5183628E7,2.7933186E7,3.0650124E7,1.7087882E7,1.5983709E7,4.20836E5,3.449382E6,0E0,0E0,0E0,0E0,0E0,0E0,0E0,0E0],"parents":[2147483647,0,0,1,1,2,2,3,3,4,4,5,5,6,6],"right_children":[2,4,6,8,10,12,14,-1,-1,-1,-1,-1,-1,-1,-1],"split_conditions":[3E3,3.4E0,2.54E2,1.05E3,2.013E3,3E0,1.4E-1,-6.4320415E-1,-4.3951883E0,-5.728871E-1,2.115922E0,-2.9110762E1,-1.13812256E2,5.953161E0,-1.5254788E1],"split_indices":[1,0,16,1,2,3,0,0,0,0,0,0,0,0,0],"split_type":[0,0,0,0,0,0,0,0,0,0,0,0,0,0,0],"sum_hessian":[4.2631E4,4.231E4,3.21E2,1.8206E4,2.4104E4,8E0,3.13E2,1.4359E4,3.847E3,8.583E3,1.5521E4,1E0,7E0,2E1,2.93E2],"tree_param":{"num_deleted":"0","num_feature":"27","num_nodes":"15","size_leaf_vector":"1"}},{"base_weights":[6.992296E-2,-2.9535593E1,2.2820847E1,-1.1228626E1,-9.367418E1,-1.2163296E1,4.231468E1,-1.9279635E0,2.2065547E0,-8.028407E0,-1.205355E0,3.827114E-1,-4.215396E0,1.6835533E0,8.840549E0],"categories":[],"categories_nodes":[],"categories_segments":[],"categories_sizes":[],"default_left":[0,0,0,0,0,0,0,0,0,0,0,0,0,0,0],"id":26,"left_children":[1,3,5,7,9,11,13,-1,-1,-1,-1,-1,-1,-1,-1],"loss_changes":[2.8635424E7,2.16908E7,1.6395193E7,2.174829E7,1.9085272E7,1.2300594E7,1.7941244E7,0E0,0E0,0E0,0E0,0E0,0E0,0E0,0E0],"parents":[2147483647,0,0,1,1,2,2,3,3,4,4,5,5,6,6],"right_children":[2,4,6,8,10,12,14,-1,-1,-1,-1,-1,-1,-1,-1],"split_conditions":[3.5E0,1.051E3,2.013E3,6.5E2,2.02E3,5.77E2,1E2,-1.9279635E0,2.2065547E0,-8.028407E0,-1.205355E0,3.827114E-1,-4.215396E0,1.6835533E0,8.840549E0],"split_indices":[0,1,2,25,2,1,0,0,0,0,0,0,0,0,0],"split_type":[0,0,0,0,0,0,0,0,0,0,0,0,0,0,0],"sum_hessian":[4.2512E4,1.8473E4,2.4039E4,1.4372E4,4.101E3,8.602E3,1.5437E4,9.622E3,4.75E3,2.09E3,2.011E3,6.749E3,1.853E3,1.4506E4,9.31E2],"tree_param":{"num_deleted":"0","num_feature":"27","num_nodes":"15","size_leaf_vector":"1"}},{"base_weights":[-2.5517205E-2,4.4435325E0,-1.5976894E2,1.5163009E0,2.93474E2,-1.0814667E3,-1.2411233E2,3.4878644E-1,-5.0395427E0,1.1426242E1,4.0475567E1,-7.56302E1,-3.0058584E1,-4.6271143E0,-2.7152515E1],"categories":[],"categories_nodes":[],"categories_segments":[],"categories_sizes":[],"default_left":[0,0,0,0,0,0,0,0,0,0,0,0,0,0,0],"id":27,"left_children":[1,3,5,7,9,11,13,-1,-1,-1,-1,-1,-1,-1,-1],"loss_changes":[3.0376492E7,3.5019636E7,3.7922996E7,2.2888494E7,1.3724228E7,7.994804E6,1.4709838E7,0E0,0E0,0E0,0E0,0E0,0E0,0E0,0E0],"parents":[2147483647,0,0,1,1,2,2,3,3,4,4,5,5,6,6],"right_children":[2,4,6,8,10,12,14,-1,-1,-1,-1,-1,-1,-1,-1],"split_conditions":[2.2E3,2.15E3,1.15E3,1.5E3,1.25E2,1.4E3,-4.7115952E-1,3.4878644E-1,-5.0395427E0,1.1426242E1,4.0475567E1,-7.56302E1,-3.0058584E1,-4.6271143E0,-2.7152515E1],"split_indices":[1,25,26,1,0,25,18,0,0,0,0,0,0,0,0],"split_type":[0,0,0,0,0,0,0,0,0,0,0,0,0,0,0],"sum_hessian":[4.2548E4,4.1391E4,1.157E3,4.0977E4,4.14E2,4.2E1,1.115E3,3.8902E4,2.075E3,3.69E2,4.5E1,2.1E1,2.1E1,1.038E3,7.7E1],"tree_param":{"num_deleted":"0","num_feature":"27","num_nodes":"15","size_leaf_vector":"1"}},{"base_weights":[1.1199215E-1,-2.2490185E1,2.3983038E1,-6.9814806E0,-7.942039E1,1.5915736E1,1.1370408E2,-1.470745E0,2.2048852E0,-6.9781837E0,-9.297676E-1,1.0746168E1,6.8313056E-1,2.3156862E0,1.2070743E1],"categories":[],"categories_nodes":[],"categories_segments":[],"categories_sizes":[],"default_left":[0,0,0,0,0,0,0,0,0,0,0,0,0,0,0],"id":28,"left_children":[1,3,5,7,9,11,13,-1,-1,-1,-1,-1,-1,-1,-1],"loss_changes":[2.2902832E7,1.9250496E7,1.4941182E7,1.9638252E7,1.7073962E7,8.490896E6,1.4645644E7,0E0,0E0,0E0,0E0,0E0,0E0,0E0,0E0],"parents":[2147483647,0,0,1,1,2,2,3,3,4,4,5,5,6,6],"right_children":[2,4,6,8,10,12,14,-1,-1,-1,-1,-1,-1,-1,-1],"split_conditions":[5.5E0,1.05E3,3.082207E2,6.6E2,1.3E3,1.15E2,1.4441428E1,-1.470745E0,2.2048852E0,-6.9781837E0,-9.297676E-1,1.0746168E1,6.8313056E-1,2.3156862E0,1.2070743E1],"split_indices":[0,1,23,26,26,1,22,0,0,0,0,0,0,0,0],"split_type":[0,0,0,0,0,0,0,0,0,0,0,0,0,0,0],"sum_hessian":[4.2447E4,2.1803E4,2.0644E4,1.7136E4,4.667E3,1.8942E4,1.702E3,1.1907E4,5.229E3,2.346E3,2.321E3,2.11E2,1.8731E4,1.115E3,5.87E2],"tree_param":{"num_deleted":"0","num_feature":"27","num_nodes":"15","size_leaf_vector":"1"}},{"base_weights":[-2.0908576E-1,2.88523E0,-1.8307808E2,4.0207732E-1,3.2851276E2,-1.4928725E2,-8.7280206E2,1.0040187E0,-1.3635434E0,8.225123E0,2.5105244E1,-7.1929405E1,-6.879415E0,-5.3329876E1,-2.2238842E1],"categories":[],"categories_nodes":[],"categories_segments":[],"categories_sizes":[],"default_left":[0,0,0,0,0,0,0,0,0,0,0,0,0,0,0],"id":29,"left_children":[1,3,5,7,9,11,13,-1,-1,-1,-1,-1,-1,-1,-1],"loss_changes":[2.4178922E7,3.397571E7,1.6440508E7,2.270964E7,8.971148E6,1.0043743E7,2.262936E6,0E0,0E0,0E0,0E0,0E0,0E0,0E0,0E0],"parents":[2147483647,0,0,1,1,2,2,3,3,4,4,5,5,6,6],"right_children":[2,4,6,8,10,12,14,-1,-1,-1,-1,-1,-1,-1,-1],"split_conditions":[2.5E3,2.5E3,-4.327756E-1,6.3E2,2.9260033E-1,6.3E2,5.43E1,1.0040187E0,-1.3635434E0,8.225123E0,2.5105244E1,-7.1929405E1,-6.879415E0,-5.3329876E1,-2.2238842E1],"split_indices":[1,26,18,1,19,26,6,0,0,0,0,0,0,0,0],"split_type":[0,0,0,0,0,0,0,0,0,0,0,0,0,0,0],"sum_hessian":[4.2728E4,4.2018E4,7.1E2,4.1701E4,3.17E2,6.78E2,3.2E1,2.4371E4,1.733E4,1.64E2,1.53E2,5E0,6.73E2,2.1E1,1.1E1],"tree_param":{"num_deleted":"0","num_feature":"27","num_nodes":"15","size_leaf_vector":"1"}},{"base_weights":[9.163432E-1,1.8064035E1,-3.033776E1,-4.272571E0,8.955414E1,-1.3983755E2,-9.682043E0,1.27961E0,-9.9659437E-1,1.7988819E0,6.6148157E0,-6.017255E0,-3.3021404E1,-4.0578786E-2,-8.042895E0],"categories":[],"categories_nodes":[],"categories_segments":[],"categories_sizes":[],"default_left":[0,0,0,0,0,0,0,0,0,0,0,0,0,0,0],"id":30,"left_children":[1,3,5,7,9,11,13,-1,-1,-1,-1,-1,-1,-1,-1],"loss_changes":[2.2772994E7,4.3814656E7,3.4047736E7,9.777918E6,1.4953364E7,2.4163116E7,1.6984982E7,0E0,0E0,0E0,0E0,0E0,0E0,0E0,0E0],"parents":[2147483647,0,0,1,1,2,2,3,3,4,4,5,5,6,6],"right_children":[2,4,6,8,10,12,14,-1,-1,-1,-1,-1,-1,-1,-1],"split_conditions":[7.5E2,1.6374733E2,7E2,3.25E2,6E2,1.5E3,2.5E3,1.27961E0,-9.9659437E-1,1.7988819E0,6.6148157E0,-6.017255E0,-3.3021404E1,-4.0578786E-2,-8.042895E0],"split_indices":[1,23,26,1,26,1,1,0,0,0,0,0,0,0,0],"split_type":[0,0,0,0,0,0,0,0,0,0,0,0,0,0,0],"sum_hessian":[4.249E4,2.7437E4,1.5053E4,2.0906E4,6.531E3,2.388E3,1.2665E4,7.191E3,1.3715E4,2.899E3,3.632E3,2.303E3,8.5E1,1.1964E4,7.01E2],"tree_param":{"num_deleted":"0","num_feature":"27","num_nodes":"15","size_leaf_vector":"1"}},{"base_weights":[-1.7285419E0,8.908032E-1,-2.2237347E2,-2.1654587E0,1.632958E2,-1.5270634E3,-1.8441037E2,2.0001082E-1,-5.0106463E0,6.340824E0,3.6398373E1,-5.0296555E1,-1.1319576E2,-8.182175E0,-2.981223E1],"categories":[],"categories_nodes":[],"categories_segments":[],"categories_sizes":[],"default_left":[0,0,0,0,0,0,0,0,0,0,0,0,0,0,0],"id":31,"left_children":[1,3,5,7,9,11,13,-1,-1,-1,-1,-1,-1,-1,-1],"loss_changes":[2.4631068E7,2.0906214E7,2.4483434E7,2.4992834E7,1.5933582E7,3.09862E6,4.067501E6,0E0,0E0,0E0,0E0,0E0,0E0,0E0,0E0],"parents":[2147483647,0,0,1,1,2,2,3,3,4,4,5,5,6,6],"right_children":[2,4,6,8,10,12,14,-1,-1,-1,-1,-1,-1,-1,-1],"split_conditions":[2.545E3,2.2E3,1.15E3,1.5E3,1.25E2,7.8E1,-4.862727E-1,2.0001082E-1,-5.0106463E0,6.340824E0,3.6398373E1,-5.0296555E1,-1.1319576E2,-8.182175E0,-2.981223E1],"split_indices":[1,25,26,1,0,5,18,0,0,0,0,0,0,0,0],"split_type":[0,0,0,0,0,0,0,0,0,0,0,0,0,0,0],"sum_hessian":[4.2617E4,4.2118E4,4.99E2,4.1341E4,7.77E2,1.3E1,4.86E2,3.8896E4,2.445E3,7.31E2,4.6E1,9E0,4E0,4.64E2,2.2E1],"tree_param":{"num_deleted":"0","num_feature":"27","num_nodes":"15","size_leaf_vector":"1"}},{"base_weights":[1.0979721E-2,-2.4192034E1,1.940317E1,3.616033E0,-5.2216305E1,6.45188E0,6.3211906E1,-1.0361773E0,5.0847754E0,-7.206076E0,-1.3673092E0,3.4570047E-1,-8.379863E1,1.6826506E0,1.1481299E1],"categories":[],"categories_nodes":[],"categories_segments":[],"categories_sizes":[],"default_left":[0,0,0,0,0,0,0,0,0,0,0,0,0,0,0],"id":32,"left_children":[1,3,5,7,9,11,13,-1,-1,-1,-1,-1,-1,-1,-1],"loss_changes":[1.992623E7,1.4717285E7,1.337273E7,2.2632886E7,2.149529E7,1.4156603E7,2.6446746E7,0E0,0E0,0E0,0E0,0E0,0E0,0E0,0E0],"parents":[2147483647,0,0,1,1,2,2,3,3,4,4,5,5,6,6],"right_children":[2,4,6,8,10,12,14,-1,-1,-1,-1,-1,-1,-1,-1],"split_conditions":[3.7E0,6.3E2,2.019E3,6E2,6.3E2,2.15E3,3.432857E1,-1.0361773E0,5.0847754E0,-7.206076E0,-1.3673092E0,3.4570047E-1,-8.379863E1,1.6826506E0,1.1481299E1],"split_indices":[0,1,2,26,25,1,22,0,0,0,0,0,0,0,0],"split_type":[0,0,0,0,0,0,0,0,0,0,0,0,0,0,0],"sum_hessian":[4.2453E4,1.8884E4,2.3569E4,9.479E3,9.405E3,1.8192E4,5.377E3,7.595E3,1.884E3,2.002E3,7.403E3,1.8188E4,4E0,4.567E3,8.1E2],"tree_param":{"num_deleted":"0","num_feature":"27","num_nodes":"15","size_leaf_vector":"1"}},{"base_weights":[2.35538E-3,3.9789588E0,-1.4116196E2,-5.282143E-1,2.0375974E2,-1.3574178E3,-1.2200216E2,3.49717E-1,-3.5586667E0,6.56531E0,2.3599134E1,-9.80966E1,-4.869973E1,-4.7201505E0,-2.8335539E1],"categories":[],"categories_nodes":[],"categories_segments":[],"categories_sizes":[],"default_left":[0,0,0,0,0,0,0,0,0,0,0,0,0,0,0],"id":33,"left_children":[1,3,5,7,9,11,13,-1,-1,-1,-1,-1,-1,-1,-1],"loss_changes":[2.3910334E7,3.7302908E7,2.7029246E7,2.1530922E7,1.7700428E7,2.261216E6,1.4061118E7,0E0,0E0,0E0,0E0,0E0,0E0,0E0,0E0],"parents":[2147483647,0,0,1,1,2,2,3,3,4,4,5,5,6,6],"right_children":[2,4,6,8,10,12,14,-1,-1,-1,-1,-1,-1,-1,-1],"split_conditions":[2.2E3,1.9E3,7.5E2,1.2E3,3.31E1,2.15E1,-4.4822934E-1,3.49717E-1,-3.5586667E0,6.56531E0,2.3599134E1,-9.80966E1,-4.869973E1,-4.7201505E0,-2.8335539E1],"split_indices":[1,25,26,1,0,20,18,0,0,0,0,0,0,0,0],"split_type":[0,0,0,0,0,0,0,0,0,0,0,0,0,0,0],"sum_hessian":[4.2592E4,4.1426E4,1.166E3,4.0513E4,9.13E2,1.7E1,1.149E3,3.6615E4,3.898E3,7.2E2,1.93E2,5E0,1.2E1,1.083E3,6.6E1],"tree_param":{"num_deleted":"0","num_feature":"27","num_nodes":"15","size_leaf_vector":"1"}},{"base_weights":[-3.9949447E-1,3.142051E0,-1.2819121E2,-1.9773296E0,1.7284355E2,-1.258077E3,-1.10079575E2,7.0685637E-1,-1.8214343E0,5.501705E0,1.8791044E1,-9.773043E1,-4.5972652E1,-4.616943E0,-3.902156E1],"categories":[],"categories_nodes":[],"categories_segments":[],"categories_sizes":[],"default_left":[0,0,0,0,0,0,0,0,0,0,0,0,0,0,0],"id":34,"left_children":[1,3,5,7,9,11,13,-1,-1,-1,-1,-1,-1,-1,-1],"loss_changes":[1.9250448E7,3.595685E7,2.3333794E7,2.2305374E7,1.54103E7,2.44835E6,1.3366486E7,0E0,0E0,0E0,0E0,0E0,0E0,0E0,0E0],"parents":[2147483647,0,0,1,1,2,2,3,3,4,4,5,5,6,6],"right_children":[2,4,6,8,10,12,14,-1,-1,-1,-1,-1,-1,-1,-1],"split_conditions":[2.2E3,1.8E3,8.1E2,7.5E2,2.17E1,-5.631507E-1,3.39E2,7.0685637E-1,-1.8214343E0,5.501705E0,1.8791044E1,-9.773043E1,-4.5972652E1,-4.616943E0,-3.902156E1],"split_indices":[1,25,26,1,0,19,16,0,0,0,0,0,0,0,0],"split_type":[0,0,0,0,0,0,0,0,0,0,0,0,0,0,0],"sum_hessian":[4.2533E4,4.1387E4,1.146E3,4.0176E4,1.211E3,1.7E1,1.129E3,2.7373E4,1.2803E4,9.26E2,2.85E2,4E0,1.3E1,1.101E3,2.8E1],"tree_param":{"num_deleted":"0","num_feature":"27","num_nodes":"15","size_leaf_vector":"1"}},{"base_weights":[-1.091942E-1,4.092199E1,-9.926865E0,1.3146216E1,1.3497318E2,-4.4937397E1,1.411876E1,-7.0050603E-1,1.7424544E0,1.8206995E1,5.848669E0,-1.2910545E0,-6.8590064E0,4.1256175E0,-2.622329E-1],"categories":[],"categories_nodes":[],"categories_segments":[],"categories_sizes":[],"default_left":[0,0,0,0,0,0,0,0,0,0,0,0,0,0,0],"id":35,"left_children":[1,3,5,7,9,11,13,-1,-1,-1,-1,-1,-1,-1,-1],"loss_changes":[1.7150114E7,2.14717E7,2.8921554E7,3.741223E6,7.687568E6,2.4662062E7,2.6973138E7,0E0,0E0,0E0,0E0,0E0,0E0,0E0,0E0],"parents":[2147483647,0,0,1,1,2,2,3,3,4,4,5,5,6,6],"right_children":[2,4,6,8,10,12,14,-1,-1,-1,-1,-1,-1,-1,-1],"split_conditions":[3.2E2,1.3280573E2,5.76E2,7.206911E1,1.15E2,6.3E2,6.3E2,-7.0050603E-1,1.7424544E0,1.8206995E1,5.848669E0,-1.2910545E0,-6.8590064E0,4.1256175E0,-2.622329E-1],"split_indices":[1,23,25,23,1,1,1,0,0,0,0,0,0,0,0],"split_type":[0,0,0,0,0,0,0,0,0,0,0,0,0,0,0],"sum_hessian":[4.2572E4,8.219E3,3.4353E4,6.346E3,1.873E3,1.3987E4,2.0366E4,2.819E3,3.527E3,1.35E2,1.738E3,1.1587E4,2.4E3,4.493E3,1.5873E4],"tree_param":{"num_deleted":"0","num_feature":"27","num_nodes":"15","size_leaf_vector":"1"}},{"base_weights":[-6.069888E-1,1.1053967E0,-2.2448895E2,-7.0690618E0,5.486714E1,-1.726372E3,-1.8587837E2,-9.140723E-2,-1.0576279E1,5.922334E0,-3.8919696E-1,-1.8542774E1,-9.335189E1,-8.02401E0,-2.5957518E1],"categories":[],"categories_nodes":[],"categories_segments":[],"categories_sizes":[],"default_left":[0,0,0,0,0,0,0,0,0,0,0,0,0,0,0],"id":36,"left_children":[1,3,5,7,9,11,13,-1,-1,-1,-1,-1,-1,-1,-1],"loss_changes":[1.6364108E7,1.8616912E7,1.84674E7,3.9401196E7,2.2271704E7,8.32998E5,2.599934E6,0E0,0E0,0E0,0E0,0E0,0E0,0E0,0E0],"parents":[2147483647,0,0,1,1,2,2,3,3,4,4,5,5,6,6],"right_children":[2,4,6,8,10,12,14,-1,-1,-1,-1,-1,-1,-1,-1],"split_conditions":[3E3,1.2E3,2.54E2,1.24E3,1.5E3,3E0,6.5087946E2,-9.140723E-2,-1.0576279E1,5.922334E0,-3.8919696E-1,-1.8542774E1,-9.335189E1,-8.02401E0,-2.5957518E1],"split_indices":[1,26,16,1,1,3,23,0,0,0,0,0,0,0,0],"split_type":[0,0,0,0,0,0,0,0,0,0,0,0,0,0,0],"sum_hessian":[4.2683E4,4.236E4,3.23E2,3.677E4,5.59E3,7E0,3.16E2,3.5852E4,9.18E2,2.774E3,2.816E3,1E0,6E0,2.95E2,2.1E1],"tree_param":{"num_deleted":"0","num_feature":"27","num_nodes":"15","size_leaf_vector":"1"}},{"base_weights":[-1.0692351E0,7.42167E-1,-2.2647377E2,-9.630059E0,3.9962906E1,-1.6525459E3,-1.8713303E2,1.8430337E-1,-4.699241E0,6.4114075E0,8.529374E-1,-1.8079206E1,-8.8435905E1,7.8601913E0,-1.0723743E1],"categories":[],"categories_nodes":[],"categories_segments":[],"categories_sizes":[],"default_left":[0,0,0,0,0,0,0,0,0,0,0,0,0,0,0],"id":37,"left_children":[1,3,5,7,9,11,13,-1,-1,-1,-1,-1,-1,-1,-1],"loss_changes":[1.741327E7,1.7211956E7,1.876568E7,3.7586376E7,1.7887316E7,7.10226E5,3.159432E6,0E0,0E0,0E0,0E0,0E0,0E0,0E0,0E0],"parents":[2147483647,0,0,1,1,2,2,3,3,4,4,5,5,6,6],"right_children":[2,4,6,8,10,12,14,-1,-1,-1,-1,-1,-1,-1,-1],"split_conditions":[3E3,1E3,2.54E2,8.6E2,8.1E2,3E0,1.4E-1,1.8430337E-1,-4.699241E0,6.4114075E0,8.529374E-1,-1.8079206E1,-8.8435905E1,7.8601913E0,-1.0723743E1],"split_indices":[1,25,16,1,1,3,0,0,0,0,0,0,0,0,0],"split_type":[0,0,0,0,0,0,0,0,0,0,0,0,0,0,0],"sum_hessian":[4.2647E4,4.2308E4,3.39E2,3.346E4,8.848E3,8E0,3.31E2,2.8899E4,4.561E3,1.822E3,7.026E3,1E0,7E0,2.4E1,3.07E2],"tree_param":{"num_deleted":"0","num_feature":"27","num_nodes":"15","size_leaf_vector":"1"}},{"base_weights":[-3.811475E-1,3.9523205E1,-9.8361845E0,1.2466978E1,1.2973749E2,-4.6076496E1,1.2441349E1,-6.722576E-1,1.5594066E0,1.8038155E1,5.6143637E0,-2.1201136E0,-2.9517029E1,3.4721036E0,-2.8525612E-1],"categories":[],"categories_nodes":[],"categories_segments":[],"categories_sizes":[],"default_left":[0,0,0,0,0,0,0,0,0,0,0,0,0,0,0],"id":38,"left_children":[1,3,5,7,9,11,13,-1,-1,-1,-1,-1,-1,-1,-1],"loss_changes":[1.610192E7,1.9952396E7,2.7855582E7,3.0517295E6,7.562798E6,2.624168E7,2.2102644E7,0E0,0E0,0E0,0E0,0E0,0E0,0E0,0E0],"parents":[2147483647,0,0,1,1,2,2,3,3,4,4,5,5,6,6],"right_children":[2,4,6,8,10,12,14,-1,-1,-1,-1,-1,-1,-1,-1],"split_conditions":[3.2E2,1.3280573E2,5.5E2,6.965871E1,1.15E2,1.24E3,6.3E2,-6.722576E-1,1.5594066E0,1.8038155E1,5.6143637E0,-2.1201136E0,-2.9517029E1,3.4721036E0,-2.8525612E-1],"split_indices":[1,23,26,23,1,1,1,0,0,0,0,0,0,0,0],"split_type":[0,0,0,0,0,0,0,0,0,0,0,0,0,0,0],"sum_hessian":[4.2675E4,8.174E3,3.4501E4,6.289E3,1.885E3,1.3134E4,2.1367E4,2.638E3,3.651E3,1.31E2,1.754E3,1.3047E4,8.7E1,5.159E3,1.6208E4],"tree_param":{"num_deleted":"0","num_feature":"27","num_nodes":"15","size_leaf_vector":"1"}},{"base_weights":[3.6719972E-1,-2.2674807E1,1.5977809E1,6.9712205E0,-4.1620228E1,-1.4699089E1,3.281142E1,-6.722564E-1,5.328878E0,-5.889646E0,-9.698059E-1,1.2179488E1,-9.345643E-1,1.0883555E0,4.902675E0],"categories":[],"categories_nodes":[],"categories_segments":[],"categories_sizes":[],"default_left":[0,0,0,0,0,0,0,0,0,0,0,0,0,0,0],"id":39,"left_children":[1,3,5,7,9,11,13,-1,-1,-1,-1,-1,-1,-1,-1],"loss_changes":[1.5318896E7,9.66078E6,1.3110922E7,1.3640773E7,1.7762696E7,9.28069E6,1.1809904E7,0E0,0E0,0E0,0E0,0E0,0E0,0E0,0E0],"parents":[2147483647,0,0,1,1,2,2,3,3,4,4,5,5,6,6],"right_children":[2,4,6,8,10,12,14,-1,-1,-1,-1,-1,-1,-1,-1],"split_conditions":[2.8E0,5.25E2,2.013E3,5.4E2,5.76E2,1.15E2,4.85E1,-6.722564E-1,5.328878E0,-5.889646E0,-9.698059E-1,1.2179488E1,-9.345643E-1,1.0883555E0,4.902675E0],"split_indices":[0,1,2,26,25,1,0,0,0,0,0,0,0,0,0],"split_type":[0,0,0,0,0,0,0,0,0,0,0,0,0,0,0],"sum_hessian":[4.2586E4,1.7199E4,2.5387E4,6.706E3,1.0493E4,8.995E3,1.6392E4,5.566E3,1.14E3,2.369E3,8.124E3,1.36E2,8.859E3,1.402E4,2.372E3],"tree_param":{"num_deleted":"0","num_feature":"27","num_nodes":"15","size_leaf_vector":"1"}},{"base_weights":[6.01762E-1,-1.8275627E1,1.8497742E1,7.137364E0,-3.5551445E1,6.2432117E0,5.9817287E1,-5.2524257E-1,5.087919E0,-5.4099307E0,-7.30101E-1,3.2570747E-1,-1.1419976E2,1.6836207E0,9.077617E0],"categories":[],"categories_nodes":[],"categories_segments":[],"categories_sizes":[],"default_left":[0,0,0,0,0,0,0,0,0,0,0,0,0,0,0],"id":40,"left_children":[1,3,5,7,9,11,13,-1,-1,-1,-1,-1,-1,-1,-1],"loss_changes":[1.440572E7,9.111008E6,1.1083663E7,1.4021724E7,1.8800172E7,1.0491584E7,1.5929906E7,0E0,0E0,0E0,0E0,0E0,0E0,0E0,0E0],"parents":[2147483647,0,0,1,1,2,2,3,3,4,4,5,5,6,6],"right_children":[2,4,6,8,10,12,14,-1,-1,-1,-1,-1,-1,-1,-1],"split_conditions":[5E0,5.25E2,2.019E3,5.4E2,6E2,8E3,4.85E1,-5.2524257E-1,5.087919E0,-5.4099307E0,-7.30101E-1,3.2570747E-1,-1.1419976E2,1.6836207E0,9.077617E0],"split_indices":[0,1,2,26,26,1,0,0,0,0,0,0,0,0,0],"split_type":[0,0,0,0,0,0,0,0,0,0,0,0,0,0,0],"sum_hessian":[4.264E4,2.0751E4,2.1889E4,8.398E3,1.2353E4,1.6883E4,5.006E3,7.079E3,1.319E3,2.764E3,9.589E3,1.6882E4,1E0,4.122E3,8.84E2],"tree_param":{"num_deleted":"0","num_feature":"27","num_nodes":"15","size_leaf_vector":"1"}},{"base_weights":[-4.259109E-1,5.1996875E0,-6.169933E1,-4.6188813E-2,2.0600432E2,-2.7750122E2,-2.871848E1,1.2110574E0,-7.762299E-1,7.38821E0,1.9268515E1,-2.861883E1,-1.0965338E1,-3.3390126E0,2.2134473E0],"categories":[],"categories_nodes":[],"categories_segments":[],"categories_sizes":[],"default_left":[0,0,0,0,0,0,0,0,0,0,0,0,0,0,0],"id":41,"left_children":[1,3,5,7,9,11,13,-1,-1,-1,-1,-1,-1,-1,-1],"loss_changes":[1.4752777E7,4.1293144E7,2.5607296E7,1.4350176E7,1.0368456E7,8.059852E6,8.678746E6,0E0,0E0,0E0,0E0,0E0,0E0,0E0,0E0],"parents":[2147483647,0,0,1,1,2,2,3,3,4,4,5,5,6,6],"right_children":[2,4,6,8,10,12,14,-1,-1,-1,-1,-1,-1,-1,-1],"split_conditions":[1.5E3,1.5E3,1.2E3,4.5E2,1.7E3,6.6E2,2.15E3,1.2110574E0,-7.762299E-1,7.38821E0,1.9268515E1,-2.861883E1,-1.0965338E1,-3.3390126E0,2.2134473E0],"split_indices":[1,25,26,1,26,26,26,0,0,0,0,0,0,0,0],"split_type":[0,0,0,0,0,0,0,0,0,0,0,0,0,0,0],"sum_hessian":[4.2797E4,3.9199E4,3.598E3,3.8202E4,9.97E2,4.76E2,3.122E3,1.4877E4,2.3325E4,7.54E2,2.43E2,7.7E1,3.99E2,2.052E3,1.07E3],"tree_param":{"num_deleted":"0","num_feature":"27","num_nodes":"15","size_leaf_vector":"1"}},{"base_weights":[-3.7494904E-1,-8.437759E0,4.1402676E1,-3.614067E0,-2.2502184E2,9.36369E1,-1.9209206E1,4.3579403E-1,-2.240294E0,-9.325808E0,-3.295352E1,3.670768E0,1.9316528E1,7.184348E-1,-6.7544703E0],"categories":[],"categories_nodes":[],"categories_segments":[],"categories_sizes":[],"default_left":[0,0,0,0,0,0,0,0,0,0,0,0,0,0,0],"id":42,"left_children":[1,3,5,7,9,11,13,-1,-1,-1,-1,-1,-1,-1,-1],"loss_changes":[1.4350622E7,3.730771E7,2.1821972E7,1.7743118E7,1.2880056E7,2.1882732E7,1.2418165E7,0E0,0E0,0E0,0E0,0E0,0E0,0E0,0E0],"parents":[2147483647,0,0,1,1,2,2,3,3,4,4,5,5,6,6],"right_children":[2,4,6,8,10,12,14,-1,-1,-1,-1,-1,-1,-1,-1],"split_conditions":[1.1E3,1.24E3,1.5E3,7.5E2,2E3,1.8E3,-3.536761E-1,4.3579403E-1,-2.240294E0,-9.325808E0,-3.295352E1,3.670768E0,1.9316528E1,7.184348E-1,-6.7544703E0],"split_indices":[26,1,1,1,1,25,18,0,0,0,0,0,0,0,0],"split_type":[0,0,0,0,0,0,0,0,0,0,0,0,0,0,0],"sum_hessian":[4.2601E4,3.571E4,6.891E3,3.4933E4,7.77E2,3.701E3,3.19E3,2.6886E4,8.047E3,7.15E2,6.2E1,3.463E3,2.38E2,2.474E3,7.16E2],"tree_param":{"num_deleted":"0","num_feature":"27","num_nodes":"15","size_leaf_vector":"1"}},{"base_weights":[-1.8974528E-1,-9.708244E0,3.433549E1,-5.5807977E0,-2.5107315E2,7.299047E1,-2.3337536E1,1.0404238E0,-1.3438663E0,-1.1711222E1,-6.3015423E1,2.2674692E0,1.2459861E1,-4.417726E0,1.169505E0],"categories":[],"categories_nodes":[],"categories_segments":[],"categories_sizes":[],"default_left":[0,0,0,0,0,0,0,0,0,0,0,0,0,0,0],"id":43,"left_children":[1,3,5,7,9,11,13,-1,-1,-1,-1,-1,-1,-1,-1],"loss_changes":[1.4014035E7,3.3300268E7,2.0547392E7,1.8471812E7,9.261232E6,2.6864372E7,1.123996E7,0E0,0E0,0E0,0E0,0E0,0E0,0E0,0E0],"parents":[2147483647,0,0,1,1,2,2,3,3,4,4,5,5,6,6],"right_children":[2,4,6,8,10,12,14,-1,-1,-1,-1,-1,-1,-1,-1],"split_conditions":[1E3,1.24E3,1.4E3,4.5E2,2.9E3,1.4E3,1.65E3,1.0404238E0,-1.3438663E0,-1.1711222E1,-6.3015423E1,2.2674692E0,1.2459861E1,-4.417726E0,1.169505E0],"split_indices":[25,1,1,1,1,26,26,0,0,0,0,0,0,0,0],"split_type":[0,0,0,0,0,0,0,0,0,0,0,0,0,0,0],"sum_hessian":[4.2642E4,3.3427E4,9.215E3,3.2866E4,5.61E2,5.517E3,3.698E3,1.4678E4,1.8188E4,5.53E2,8E0,4.77E3,7.47E2,1.546E3,2.152E3],"tree_param":{"num_deleted":"0","num_feature":"27","num_nodes":"15","size_leaf_vector":"1"}},{"base_weights":[-7.9145074E-1,2.2687E0,-1.12416084E2,-1.9403582E0,1.3915334E2,-3.7050537E2,-5.7424435E1,2.2941458E-1,-3.423853E0,4.0730824E0,1.5616928E1,-1.641357E1,-7.410133E1,-1.8398068E0,-3.1038736E1],"categories":[],"categories_nodes":[],"categories_segments":[],"categories_sizes":[],"default_left":[0,0,0,0,0,0,0,0,0,0,0,0,0,0,0],"id":44,"left_children":[1,3,5,7,9,11,13,-1,-1,-1,-1,-1,-1,-1,-1],"loss_changes":[1.4517069E7,2.3832936E7,1.6073308E7,1.7433448E7,1.2303882E7,8.855338E6,1.0854375E7,0E0,0E0,0E0,0E0,0E0,0E0,0E0,0E0],"parents":[2147483647,0,0,1,1,2,2,3,3,4,4,5,5,6,6],"right_children":[2,4,6,8,10,12,14,-1,-1,-1,-1,-1,-1,-1,-1],"split_conditions":[2.2E3,1.8E3,2.57E2,1.2E3,2.05E1,6.5087946E2,3.38E2,2.2941458E-1,-3.423853E0,4.0730824E0,1.5616928E1,-1.641357E1,-7.410133E1,-1.8398068E0,-3.1038736E1],"split_indices":[1,25,16,1,0,23,16,0,0,0,0,0,0,0,0],"split_type":[0,0,0,0,0,0,0,0,0,0,0,0,0,0,0],"sum_hessian":[4.2497E4,4.1364E4,1.133E3,4.0131E4,1.233E3,1.98E2,9.35E2,3.6546E4,3.585E3,9.26E2,3.07E2,1.92E2,6E0,9.03E2,3.2E1],"tree_param":{"num_deleted":"0","num_feature":"27","num_nodes":"15","size_leaf_vector":"1"}},{"base_weights":[-7.4070406E-1,2.338206E0,-1.1404995E2,-2.4140792E-1,2.5427493E2,-8.036371E1,-4.408432E2,-8.730984E-1,9.482838E-1,8.251456E0,3.128739E1,-2.2993738E1,-2.6841056E0,-1.6043188E1,-3.7966362E1],"categories":[],"categories_nodes":[],"categories_segments":[],"categories_sizes":[],"default_left":[0,0,0,0,0,0,0,0,0,0,0,0,0,0,0],"id":45,"left_children":[1,3,5,7,9,11,13,-1,-1,-1,-1,-1,-1,-1,-1],"loss_changes":[1.4849527E7,2.6931246E7,1.2360071E7,1.3567971E7,1.382074E7,1.0324046E7,3.76857E6,0E0,0E0,0E0,0E0,0E0,0E0,0E0,0E0],"parents":[2147483647,0,0,1,1,2,2,3,3,4,4,5,5,6,6],"right_children":[2,4,6,8,10,12,14,-1,-1,-1,-1,-1,-1,-1,-1],"split_conditions":[2.2E3,2.15E3,-4.862727E-1,5.76E2,3.03E1,2.02E3,-3.1310704E-1,-8.730984E-1,9.482838E-1,8.251456E0,3.128739E1,-2.2993738E1,-2.6841056E0,-1.6043188E1,-3.7966362E1],"split_indices":[1,26,18,26,20,2,18,0,0,0,0,0,0,0,0],"split_type":[0,0,0,0,0,0,0,0,0,0,0,0,0,0,0],"sum_hessian":[4.2563E4,4.1438E4,1.125E3,4.1019E4,4.19E2,1.021E3,1.04E2,2.1628E4,1.9391E4,3.39E2,8E1,6.6E1,9.55E2,7.7E1,2.7E1],"tree_param":{"num_deleted":"0","num_feature":"27","num_nodes":"15","size_leaf_vector":"1"}},{"base_weights":[-2.0081526E-1,1.4291162E1,-1.9557325E1,-4.091654E0,8.4051186E1,-1.21896904E2,-4.3915763E0,-9.0816635E-1,1.0024526E0,1.8664343E0,6.4522424E0,-5.4809775E0,-2.6976149E1,-1.9148649E0,7.505912E-1],"categories":[],"categories_nodes":[],"categories_segments":[],"categories_sizes":[],"default_left":[0,0,0,0,0,0,0,0,0,0,0,0,0,0,0],"id":46,"left_children":[1,3,5,7,9,11,13,-1,-1,-1,-1,-1,-1,-1,-1],"loss_changes":[1.1955229E7,3.1254648E7,2.831984E7,6.553179E6,1.0680748E7,1.201574E7,1.0456362E7,0E0,0E0,0E0,0E0,0E0,0E0,0E0,0E0],"parents":[2147483647,0,0,1,1,2,2,3,3,4,4,5,5,6,6],"right_children":[2,4,6,8,10,12,14,-1,-1,-1,-1,-1,-1,-1,-1],"split_conditions":[6.3E2,1.6374733E2,5.76E2,4.3E2,5.76E2,1.4E3,9E2,-9.0816635E-1,1.0024526E0,1.8664343E0,6.4522424E0,-5.4809775E0,-2.6976149E1,-1.9148649E0,7.505912E-1],"split_indices":[1,23,26,26,25,1,25,0,0,0,0,0,0,0,0],"split_type":[0,0,0,0,0,0,0,0,0,0,0,0,0,0,0],"sum_hessian":[4.2617E4,2.4371E4,1.8246E4,1.9289E4,5.082E3,2.354E3,1.5892E4,1.2186E4,7.103E3,2.494E3,2.588E3,2.288E3,6.6E1,5.784E3,1.0108E4],"tree_param":{"num_deleted":"0","num_feature":"27","num_nodes":"15","size_leaf_vector":"1"}},{"base_weights":[-5.0529677E-1,3.498774E1,-8.946346E0,1.0796901E1,1.1577609E2,-7.078791E1,1.7967461E0,-5.7794887E-1,1.6270707E0,1.5732752E1,5.0022445E0,-3.3115575E0,-2.9655172E1,8.9772123E-1,-1.1427336E0],"categories":[],"categories_nodes":[],"categories_segments":[],"categories_sizes":[],"default_left":[0,0,0,0,0,0,0,0,0,0,0,0,0,0,0],"id":47,"left_children":[1,3,5,7,9,11,13,-1,-1,-1,-1,-1,-1,-1,-1],"loss_changes":[1.278358E7,1.6020415E7,2.2901612E7,3.0677785E6,5.878454E6,1.2103828E7,1.1698765E7,0E0,0E0,0E0,0E0,0E0,0E0,0E0,0E0],"parents":[2147483647,0,0,1,1,2,2,3,3,4,4,5,5,6,6],"right_children":[2,4,6,8,10,12,14,-1,-1,-1,-1,-1,-1,-1,-1],"split_conditions":[3.2E2,1.3280573E2,4E2,3E2,1.15E2,1.05E3,9E2,-5.7794887E-1,1.6270707E0,1.5732752E1,5.0022445E0,-3.3115575E0,-2.9655172E1,8.9772123E-1,-1.1427336E0],"split_indices":[1,23,26,25,1,1,1,0,0,0,0,0,0,0,0],"split_type":[0,0,0,0,0,0,0,0,0,0,0,0,0,0,0],"sum_hessian":[4.2667E4,8.197E3,3.447E4,6.309E3,1.888E3,5.101E3,2.9369E4,3.111E3,3.198E3,1.37E2,1.751E3,5.058E3,4.3E1,1.7741E4,1.1628E4],"tree_param":{"num_deleted":"0","num_feature":"27","num_nodes":"15","size_leaf_vector":"1"}},{"base_weights":[-6.0033554E-1,-1.7620594E1,1.7231379E1,-1.9437166E0,-9.672913E1,7.924678E1,-2.126212E0,1.1370729E0,-1.0133187E0,-8.134345E0,-3.4260213E0,2.170044E0,7.0211387E0,7.299899E-2,-8.946963E0],"categories":[],"categories_nodes":[],"categories_segments":[],"categories_sizes":[],"default_left":[0,0,0,0,0,0,0,0,0,0,0,0,0,0,0],"id":48,"left_children":[1,3,5,7,9,11,13,-1,-1,-1,-1,-1,-1,-1,-1],"loss_changes":[1.2879342E7,2.6926486E7,2.4878684E7,8.1970045E6,6.670208E6,1.0804944E7,1.0015642E7,0E0,0E0,0E0,0E0,0E0,0E0,0E0,0E0],"parents":[2147483647,0,0,1,1,2,2,3,3,4,4,5,5,6,6],"right_children":[2,4,6,8,10,12,14,-1,-1,-1,-1,-1,-1,-1,-1],"split_conditions":[6E2,5.77E2,6.3E2,3.25E2,4.8E2,1.8779811E2,3E3,1.1370729E0,-1.0133187E0,-8.134345E0,-3.4260213E0,2.170044E0,7.0211387E0,7.299899E-2,-8.946963E0],"split_indices":[25,1,1,1,26,23,1,0,0,0,0,0,0,0,0],"split_type":[0,0,0,0,0,0,0,0,0,0,0,0,0,0,0],"sum_hessian":[4.2434E4,2.1711E4,2.0723E4,1.8121E4,3.59E3,4.929E3,1.5794E4,7.72E3,1.0401E4,1.074E3,2.516E3,3.109E3,1.82E3,1.5481E4,3.13E2],"tree_param":{"num_deleted":"0","num_feature":"27","num_nodes":"15","size_leaf_vector":"1"}},{"base_weights":[6.868928E-2,-1.7375574E1,1.5972852E1,3.669622E0,-6.8945854E1,8.422986E1,2.3749356E0,2.3746781E0,-3.2667232E-1,-2.773586E0,-8.103371E0,2.5603979E0,7.4573884E0,3.9409536E-1,-5.5373635E0],"categories":[],"categories_nodes":[],"categories_segments":[],"categories_sizes":[],"default_left":[0,0,0,0,0,0,0,0,0,0,0,0,0,0,0],"id":49,"left_children":[1,3,5,7,9,11,13,-1,-1,-1,-1,-1,-1,-1,-1],"loss_changes":[1.1822674E7,2.205694E7,2.068926E7,6.4543095E6,7.381382E6,7.93053E6,1.1581089E7,0E0,0E0,0E0,0E0,0E0,0E0,0E0,0E0],"parents":[2147483647,0,0,1,1,2,2,3,3,4,4,5,5,6,6],"right_children":[2,4,6,8,10,12,14,-1,-1,-1,-1,-1,-1,-1,-1],"split_conditions":[5.25E2,5E2,5.25E2,2.25E2,8.1E2,1.866786E2,2.4E3,2.3746781E0,-3.2667232E-1,-2.773586E0,-8.103371E0,2.5603979E0,7.4573884E0,3.9409536E-1,-5.5373635E0],"split_indices":[25,1,1,1,1,23,1,0,0,0,0,0,0,0,0],"split_type":[0,0,0,0,0,0,0,0,0,0,0,0,0,0,0],"sum_hessian":[4.2612E4,2.0322E4,2.229E4,1.4433E4,5.889E3,3.702E3,1.8588E4,2.725E3,1.1708E4,5.146E3,7.43E2,2.455E3,1.247E3,1.7726E4,8.62E2],"tree_param":{"num_deleted":"0","num_feature":"27","num_nodes":"15","size_leaf_vector":"1"}}]},"name":"gbtree"},"learner_model_param":{"base_score":"[6.1038597E-3]","boost_from_average":"1","num_class":"0","num_feature":"27","num_target":"1"},"objective":{"name":"reg:squarederror","reg_loss_param":{"scale_pos_weight":"1"}}},"version":[3,2,0]}